{"fpca_svd":{"singular_values":[21.847116874359457,12.614126983087306,0.59021272786955203],"scores":[0.11282044890082522,0.062882824385635083,-0.051615123729710388,0.17320259882345304,-0.11808673425199112,0.29850766793040401,0.011403425170128042,0.021019436076753821,0.21714631939095497,-0.0072118084327956206,-0.086992759943086112,-0.024989693474093258,0.15158013853971739,-0.12821627736836227,-0.15429401060899783,-0.14553126984903847,-0.15613447936798452,0.052992489537474513,-0.23272549345007909,-0.060892153950012712,-0.41621743242066217,0.14657486311477236,0.32543647377281287,0.35720550399361239,-0.15897229729323439,-0.23750032363811302,0.26592878927071939,-0.15845090685054453,0.056340513061910041,-0.1152107273404675,0.060823411780417724,-0.035987374877765071,-0.42548587190569309,0.020716641022614508,-0.037793322179373159,0.041446321997458721,0.058090940103091265,-0.24476667834197005,-0.16928375946490259,0.086755695447660874,0.17348359909897232,0.049386020463593028,0.037626501758877967,0.0022370497051970029,-0.18756773069798227,-0.26578608298471934,0.12339745421196394,0.39717847426401898,0.2326795878274184,0.21839159162558855,0.0015851421378387659,-0.27222149323675787,0.049454270374197189,-0.090593945817558738,-0.027198470399562504,-0.30505579186048348,0.1414116582083555,0.11651283336347781,-0.037211707040445637,0.28777503541647131,0.18410826063406027,-0.06976858767598608,-0.14152898273896611,-0.17768727342109611,0.20399956227342797,0.19115377662110403,-0.039652562849958044,-0.076851841287665201,-0.076409125703002886,0.20810036244136365,-0.10096238826926321,0.021939030469068744,-0.16101864611485817,0.10356580782216017,0.28570358309450428,0.44949073518934735,-0.094896038369314595,0.036562321411503819,-0.028124812143800484,0.091754413537748117,-0.25911267414618133,0.25799344611633857,-0.1818262128435271,-0.26925427770158644,-0.24380192548831581,-0.18626245289004689,0.14052170536096412,-0.18503576781430986,-0.063928314164713299,0.18122887865100024],"loadings":[-0.015488482844382645,-0.043792140468785323,-0.061858330852589433,-0.089548203251386405,-0.11199354489259362,-0.13109757868549435,-0.14917679515335569,-0.16958845114664181,-0.18010496205143153,-0.18577994245562135,-0.19361948511299673,-0.19925934185584737,-0.19857646247544358,-0.19257603601102682,-0.18738458323708748,-0.18565701444554625,-0.17122826009217251,-0.15937781843622542,-0.140530687061374,-0.12049595590203752,-0.1020916662416322,-0.082559858627608645,-0.058535924690407373,-0.036305994110368875,-0.0059484939505166437,0.0155800603494975,0.043712265725363783,0.0632575433377561,0.087868513955077415,0.10805279594558903,0.13325814906350728,0.15052594611247017,0.16118179680321823,0.17748058899685051,0.18947486137956315,0.19867921560647203,0.20005784684055081,0.20375334070640555,0.19679410647433299,0.19148539099199835,0.18367885664536548,0.17527455124822383,0.16216589900456013,0.14074890886187602,0.12775271907355623,0.10170663801642617,0.079652147175119523,0.055349801181857547,0.037388157546831544,0.0051175399666535046,-0.013585975197977579,-0.18700174648306972,-0.1886002657485146,-0.18523554717353063,-0.18395752976011767,-0.16672992740935744,-0.15121438330965606,-0.12453856020715853,-0.10484666399719456,-0.08912542888832399,-0.070589802800523072,-0.031931254694975486,-0.012420018719651163,-0.0011956881910076544,0.03049762692339969,0.050258206036022296,0.068284776824388771,0.094929806011527673,0.12262714353406534,0.13756969913412054,0.15844217625767226,0.16621024283849239,0.17767601651919296,0.18839506773785686,0.19345418122696889,0.19983834879644521,0.19997954860945205,0.19205023140711036,0.18811894622286701,0.17509562494367456,0.16479088066922404,0.14318606653766669,0.1335609131844484,0.1132953281296961,0.089398079128801725,0.068101391144260365,0.040402293503126706,0.02197957597637526,-0.0084787120681626693,-0.032476071824147329,-0.047379475119000383,-0.073786344279252847,-0.1024304044680357,-0.11761753488403573,-0.13691345935848109,-0.15185815545682041,-0.16436735098492003,-0.18569125496840927,-0.19020201260457598,-0.19371028284021957,-0.19992434983821308,-0.18888668355090971,0.0022802289268371231,-0.12374752168998594,0.069480503465313842,0.050039885354773959,-0.055747864485321673,0.077305630112200915,0.044241688823783647,-0.15961083899509046,0.10049720958186234,-0.020261370654536266,0.18994459815673712,0.11593992333095515,-0.00026047583961901453,0.059753633018657534,-0.37398053397027209,-0.084774028211220584,0.11639310677649281,0.045699576877073406,-0.13447391737550246,0.24459273487524977,0.024847457038614927,0.13777003182467359,-0.039020289689892511,-0.14985786778383609,-0.098541890566859136,0.067330773337879679,-0.018595035802421101,-0.01425951041671744,-0.016476527086049783,0.10711626662958881,-0.25745738553924591,0.20130858536183097,-0.0035753506514905557,0.16901821950718976,-0.19131380170944248,0.033741300323104101,0.070432401369402875,-0.081570735545259204,0.012436833689205699,-0.20809868905022078,0.048125210143170769,0.085705909271020189,-0.084865780012989195,0.083727926648603346,0.06669813897973656,0.10184111935573215,0.38368624558762376,-0.21173678535989235,0.020903708934495981,-0.030267239962461313,-0.32592007595289169],"col_means":[0.17214416894493798,0.18351115302875765,0.1665280725800013,0.14728615590020691,0.1541691114017836,0.12365533150431099,0.11124125573803818,0.082968320906207468,0.079083806689519101,0.057383090455257552,0.034470189959038923,-0.0025032028374635854,-0.01279402891806072,-0.036633205215768724,-0.066705193788796927,-0.084974743015257009,-0.11547035698070821,-0.10280222054462071,-0.12661105207034742,-0.15274315223707469,-0.16449728548459477,-0.17834518910960098,-0.17666131817671832,-0.18531467658638373,-0.18323838671951115,-0.18379890114487688,-0.18467291366401353,-0.17020880250602888,-0.17777109402401511,-0.14448331160974248,-0.1380058338941435,-0.11838359559427268,-0.08941032902491225,-0.062725898179792294,-0.052409937309862029,-0.039946842634649274,-0.022913350847773638,0.011060800967172905,0.032261067818156929,0.078564544256638558,0.092454280402595318,0.088114255600122454,0.12581896989131838,0.15368394232042829,0.14410113041898309,0.16602872578173344,0.18980434316605047,0.1582134383160432,0.17701485566475481,0.18596064005618201,0.16404791918587588],"proportion_variance":[0.74600821962845387,0.24869654151446816,0.00054446816308958783]},"ridge":{"intercept":0.013031153766604887,"coefficients":[0.014566109863333798,0.027256532166411374,0.036121161989810205,0.04616417316324465,0.054281231016110147,0.059639124786545081,0.068994060476834054,0.073926210931362743,0.078820547367143029,0.076379927599330585,0.079598954018528359,0.08135920458677795,0.078252445149246147,0.074335877360596228,0.068011663658462909,0.067919547560241031,0.060183438150880821,0.053053103244058777,0.049187560647376526,0.037477788357256521,0.028572787286766887,0.02070142744398247,0.012065366033006975,0.0011740358636656008,-0.0099348759993104514,-0.018069494333407196,-0.028691478646744758,-0.032165637314208184,-0.044317340360639473,-0.049091100525999881,-0.057881152216511772,-0.062912424914583959,-0.068144591713388769,-0.070827405011999744,-0.075280042057526933,-0.076950881740164456,-0.079705432491833691,-0.079025441246793837,-0.072530988500296725,-0.070987511832101752,-0.067897216144183453,-0.062832383154371244,-0.059661691960486839,-0.046423057546251305,-0.04302436446863437,-0.032549323037934307,-0.021936043058145449,-0.010743501444786826,-0.0051430547439928675,0.009466716899963935,0.014423668422139402]},"pls":{"scores":[-2.5007136548915461,-1.3489353877118204,1.3983823016795716,-3.7923092434671282,2.6006787147791681,-6.5396015355522774,-0.28593774807626798,-0.30206716666903771,-4.6297005841838539,0.10184581902394615,1.7869972172578503,0.51364357782378678,-3.331340557004999,2.796177215057849,3.4865942350229808,3.345514041701382,3.3277590291856929,-1.4102782131653002,4.9290249019048478,1.1888745941292214,9.0804352330875382,-3.0239872560557233,-7.1323487754527273,-7.7359191001062255,3.4860019892237788,5.3770592385387879,-5.8927187374195658,3.3826630744654436,-1.2055344339756122,2.3297412108502331,-0.7307960161235294,0.47973668917289747,5.3489295104702999,-0.19580319021067136,0.432166702227404,-0.41098925177625112,-0.72761937022612666,3.0950218218936518,2.2136742522534854,-1.0974684715307972,-2.2243307845573388,-0.63269910884400904,-0.41696528642709652,-0.073941660387628616,2.3111788177789543,3.3034917007637881,-1.6145260449007302,-4.9898675648464561,-3.0204944599485573,-2.7784359871159805,-0.1738822621069161,3.4881343394958835,-0.50397661540964844,1.2748403857876889,0.28394033142278197,3.7575446697633383,-1.6843945742023971,-1.5297767859622011,0.48894880443693478,-3.6716405908907719],"loadings":[0.018661977901426791,0.047004879979082703,0.065021878334949712,0.092701943246904589,0.1148651477317492,0.1337145764285968,0.15134989046492697,0.17143674394337333,0.18169159309108829,0.18705498138073479,0.19424329688137471,0.19955519700473001,0.19868183825695288,0.19214215095714038,0.18661371231510115,0.18458020595413102,0.16969403272128863,0.15736941858742234,0.13826129226088973,0.11786440838637935,0.099320623494358939,0.079586301686715238,0.055370587266765109,0.033045359281158274,0.0025667373909369264,-0.018973420273424715,-0.046983433488393886,-0.066470394352610374,-0.090871499696110039,-0.11088986640669071,-0.13574019307096494,-0.1528523079089418,-0.16316962153892312,-0.17907063555080061,-0.19070941028415167,-0.19944860724030772,-0.20051593397615519,-0.20369717246239499,-0.19632845756572007,-0.19076513730359509,-0.18250803577590974,-0.1736150123422909,-0.16024364083025189,-0.13849051998002881,-0.1252357830105307,-0.098966671946325302,-0.076541589977878993,-0.052152419055906535,-0.034123703541400215,-0.0017340102840858623,0.016790541987343702,0.18603214097925999,0.18619653034382019,0.18192236855427504,0.17923755752254086,0.16088698804837656,0.14441375785405497,0.11685561511657831,0.09614096636802591,0.079907537612367241,0.06109102692377949,0.022080703819300246,0.0023065782149348946,-0.0088812537405633645,-0.040235918113738431,-0.05972401948493241,-0.077638044852049573,-0.10352501660387453,-0.13059746081809637,-0.14455706994405448,-0.16440051909261832,-0.17123191247412667,-0.18169267882361345,-0.19117830730138191,-0.19511265994998478,-0.1999495683712279,-0.19899678241967009,-0.18965049347125912,-0.18472075875594812,-0.17047323644886214,-0.15914931502345483,-0.13629067008426107,-0.12579140221705853,-0.10501305888148112,-0.080306289240916387,-0.058423509259321903,-0.030282678399514533,-0.011816190046063477,0.018802481052602266,0.04243240072645945,0.057046614829733513,0.083033472024108726,0.11122570089757607,0.12572457409958793,0.14393033124098703,0.15819109816968224,0.16936841425213089,0.1895539652841581,0.19282875340974995,0.19541864372701978,0.19998982726192235,0.18800876150049239],"weights":[0.02478763307311483,0.053252793965189435,0.07129237225344813,0.098775319045273299,0.12031161178488314,0.13845378818464962,0.15548979033017041,0.17466456501074007,0.18452556815008711,0.18891711161198746,0.19503158508107904,0.19977650432197758,0.19836272545027686,0.19083413297322704,0.18438905109098797,0.18195152633619965,0.16616402975374586,0.15285651862170979,0.13370021523822587,0.11236902600249049,0.093462414459139054,0.07339952829499273,0.048972460140143531,0.026305406829918609,-0.0042617208070245089,-0.025769180223962102,-0.053505788900425302,-0.072475590311888494,-0.096747170787518572,-0.11617465079361819,-0.14030884611402136,-0.15698594918674996,-0.16683414058776702,-0.181693472708676,-0.19268641137012649,-0.20041900644123273,-0.20113624264918561,-0.20319366528198324,-0.19473375650605956,-0.18875488066162116,-0.17970601350205115,-0.16979616234846082,-0.15617391036322853,-0.13342367558427717,-0.11991698571434431,-0.093312963854831205,-0.07013263888711839,-0.045508614120926112,-0.027561045604966611,0.0051169921440750495,0.023049631647307528,0.18106114090113878,0.18467484748491508,0.18534226153381542,0.17951587550282805,0.1609857178861927,0.14008086702120859,0.12236650151021884,0.095407421525019728,0.083766183875201766,0.055040549088598768,0.023300097180958639,0.0065413664706114871,-0.0094322855651380374,-0.038662187447500884,-0.065756182492631848,-0.077698093893043579,-0.10433926604973633,-0.13339157913119337,-0.13481558891502451,-0.16243163812316688,-0.17315601055323196,-0.18286766352429223,-0.18911482359157944,-0.1992184421482204,-0.20183448092751968,-0.20086799133283456,-0.19278674348554556,-0.17750062666720054,-0.17367215123163737,-0.15620681603759543,-0.13503951972035363,-0.1221815111786213,-0.10831527097774586,-0.077525403388312028,-0.058435883535172511,-0.028682905179041557,-0.01833498505904298,0.014882585124711075,0.047135920185793899,0.059418845968045024,0.08282172853608892,0.11287696049378534,0.12029244560240508,0.14976498045522996,0.15721216419761699,0.16711140419708509,0.18943475660138018,0.19637652916082809,0.19397799908922042,0.20250083969670407,0.18500517627460156]}}
